digraph Tree {
node [shape=box, style=filled,fillcolor="#FFFFFF"] ;
0 [label=<<FONT COLOR="#D2691E">petal length (cm) &le; 3.6<br/>gini = 0.665<br/>samples = 112<br/>value = [38, 40, 34]<br/>class = versicolor</FONT>>] ;
1 [label=<<FONT COLOR="#008000">gini = 0.206<br/>samples = 43<br/>value = [38, 5, 0]<br/>class = setosa</FONT>>] ;
0 -> 1 [labeldistance=2.5, labelangle=45, headlabel="True"] ;
2 [label=<<FONT COLOR="#008000">gini =0.500<br/>samples = 69<br/>value = [0, 35, 34]<br/>class = versicolor</FONT>>] ;
0 -> 2 [labeldistance=2.5, labelangle=-45, headlabel="False"] ;
}
